digraph Tree {
node [shape=box] ;
0 [label="X[1332] <= 0.5\nentropy = 0.97\nsamples = 2288\nvalue = [910, 1378]"] ;
1 [label="X[4421] <= 0.5\nentropy = 0.999\nsamples = 1545\nvalue = [752, 793]"] ;
0 -> 1 [labeldistance=2.5, labelangle=45, headlabel="True"] ;
2 [label="X[2008] <= 0.5\nentropy = 0.999\nsamples = 1444\nvalue = [750, 694]"] ;
1 -> 2 ;
3 [label="X[4269] <= 0.5\nentropy = 1.0\nsamples = 1361\nvalue = [670, 691]"] ;
2 -> 3 ;
4 [label="X[4530] <= 0.5\nentropy = 0.988\nsamples = 1120\nvalue = [487, 633]"] ;
3 -> 4 ;
5 [label="X[2385] <= 0.5\nentropy = 0.997\nsamples = 1016\nvalue = [473, 543]"] ;
4 -> 5 ;
6 [label="X[4438] <= 0.5\nentropy = 0.999\nsamples = 990\nvalue = [473, 517]"] ;
5 -> 6 ;
7 [label="X[538] <= 0.5\nentropy = 1.0\nsamples = 967\nvalue = [473, 494]"] ;
6 -> 7 ;
8 [label="X[2332] <= 0.5\nentropy = 0.999\nsamples = 948\nvalue = [454, 494]"] ;
7 -> 8 ;
9 [label="X[894] <= 0.5\nentropy = 0.997\nsamples = 921\nvalue = [429, 492]"] ;
8 -> 9 ;
10 [label="X[2243] <= 0.5\nentropy = 0.998\nsamples = 905\nvalue = [429, 476]"] ;
9 -> 10 ;
11 [label="X[4627] <= 0.5\nentropy = 0.994\nsamples = 841\nvalue = [383, 458]"] ;
10 -> 11 ;
12 [label="X[850] <= 0.5\nentropy = 0.996\nsamples = 822\nvalue = [382, 440]"] ;
11 -> 12 ;
13 [label="X[241] <= 0.5\nentropy = 0.992\nsamples = 764\nvalue = [342, 422]"] ;
12 -> 13 ;
14 [label="X[4573] <= 0.5\nentropy = 0.986\nsamples = 708\nvalue = [304, 404]"] ;
13 -> 14 ;
15 [label="X[2104] <= 0.5\nentropy = 0.98\nsamples = 682\nvalue = [285, 397]"] ;
14 -> 15 ;
16 [label="X[2886] <= 0.5\nentropy = 0.976\nsamples = 667\nvalue = [273, 394]"] ;
15 -> 16 ;
17 [label="X[2258] <= 0.5\nentropy = 0.971\nsamples = 642\nvalue = [257, 385]"] ;
16 -> 17 ;
18 [label="X[1419] <= 0.5\nentropy = 0.966\nsamples = 623\nvalue = [244, 379]"] ;
17 -> 18 ;
19 [label="X[75] <= 0.5\nentropy = 0.961\nsamples = 601\nvalue = [231, 370]"] ;
18 -> 19 ;
20 [label="X[1962] <= 0.5\nentropy = 0.954\nsamples = 556\nvalue = [208, 348]"] ;
19 -> 20 ;
21 [label="X[165] <= 0.5\nentropy = 0.95\nsamples = 540\nvalue = [199, 341]"] ;
20 -> 21 ;
22 [label="X[3027] <= 0.5\nentropy = 0.953\nsamples = 522\nvalue = [195, 327]"] ;
21 -> 22 ;
23 [label="X[89] <= 0.5\nentropy = 0.957\nsamples = 504\nvalue = [191, 313]"] ;
22 -> 23 ;
24 [label="X[2954] <= 0.5\nentropy = 0.954\nsamples = 489\nvalue = [183, 306]"] ;
23 -> 24 ;
25 [label="entropy = 0.947\nsamples = 424\nvalue = [155, 269]"] ;
24 -> 25 ;
26 [label="entropy = 0.986\nsamples = 65\nvalue = [28, 37]"] ;
24 -> 26 ;
27 [label="entropy = 0.997\nsamples = 15\nvalue = [8, 7]"] ;
23 -> 27 ;
28 [label="entropy = 0.764\nsamples = 18\nvalue = [4, 14]"] ;
22 -> 28 ;
29 [label="entropy = 0.764\nsamples = 18\nvalue = [4, 14]"] ;
21 -> 29 ;
30 [label="entropy = 0.989\nsamples = 16\nvalue = [9, 7]"] ;
20 -> 30 ;
31 [label="entropy = 1.0\nsamples = 45\nvalue = [23, 22]"] ;
19 -> 31 ;
32 [label="entropy = 0.976\nsamples = 22\nvalue = [13, 9]"] ;
18 -> 32 ;
33 [label="entropy = 0.9\nsamples = 19\nvalue = [13, 6]"] ;
17 -> 33 ;
34 [label="entropy = 0.943\nsamples = 25\nvalue = [16, 9]"] ;
16 -> 34 ;
35 [label="entropy = 0.722\nsamples = 15\nvalue = [12, 3]"] ;
15 -> 35 ;
36 [label="entropy = 0.84\nsamples = 26\nvalue = [19, 7]"] ;
14 -> 36 ;
37 [label="entropy = 0.906\nsamples = 56\nvalue = [38, 18]"] ;
13 -> 37 ;
38 [label="X[4326] <= 0.5\nentropy = 0.894\nsamples = 58\nvalue = [40, 18]"] ;
12 -> 38 ;
39 [label="entropy = 0.961\nsamples = 39\nvalue = [24, 15]"] ;
38 -> 39 ;
40 [label="entropy = 0.629\nsamples = 19\nvalue = [16, 3]"] ;
38 -> 40 ;
41 [label="entropy = 0.297\nsamples = 19\nvalue = [1, 18]"] ;
11 -> 41 ;
42 [label="X[4326] <= 0.5\nentropy = 0.857\nsamples = 64\nvalue = [46, 18]"] ;
10 -> 42 ;
43 [label="X[75] <= 0.5\nentropy = 0.925\nsamples = 47\nvalue = [31, 16]"] ;
42 -> 43 ;
44 [label="entropy = 0.938\nsamples = 31\nvalue = [20, 11]"] ;
43 -> 44 ;
45 [label="entropy = 0.896\nsamples = 16\nvalue = [11, 5]"] ;
43 -> 45 ;
46 [label="entropy = 0.523\nsamples = 17\nvalue = [15, 2]"] ;
42 -> 46 ;
47 [label="entropy = 0.0\nsamples = 16\nvalue = [0, 16]"] ;
9 -> 47 ;
48 [label="entropy = 0.381\nsamples = 27\nvalue = [25, 2]"] ;
8 -> 48 ;
49 [label="entropy = 0.0\nsamples = 19\nvalue = [19, 0]"] ;
7 -> 49 ;
50 [label="entropy = 0.0\nsamples = 23\nvalue = [0, 23]"] ;
6 -> 50 ;
51 [label="entropy = 0.0\nsamples = 26\nvalue = [0, 26]"] ;
5 -> 51 ;
52 [label="X[1419] <= 0.5\nentropy = 0.57\nsamples = 104\nvalue = [14, 90]"] ;
4 -> 52 ;
53 [label="X[2954] <= 0.5\nentropy = 0.626\nsamples = 83\nvalue = [13, 70]"] ;
52 -> 53 ;
54 [label="entropy = 0.602\nsamples = 68\nvalue = [10, 58]"] ;
53 -> 54 ;
55 [label="entropy = 0.722\nsamples = 15\nvalue = [3, 12]"] ;
53 -> 55 ;
56 [label="entropy = 0.276\nsamples = 21\nvalue = [1, 20]"] ;
52 -> 56 ;
57 [label="X[308] <= 0.5\nentropy = 0.796\nsamples = 241\nvalue = [183, 58]"] ;
3 -> 57 ;
58 [label="X[1419] <= 0.5\nentropy = 0.825\nsamples = 224\nvalue = [166, 58]"] ;
57 -> 58 ;
59 [label="X[2243] <= 0.5\nentropy = 0.847\nsamples = 208\nvalue = [151, 57]"] ;
58 -> 59 ;
60 [label="X[2974] <= 0.5\nentropy = 0.88\nsamples = 174\nvalue = [122, 52]"] ;
59 -> 60 ;
61 [label="X[4326] <= 0.5\nentropy = 0.844\nsamples = 151\nvalue = [110, 41]"] ;
60 -> 61 ;
62 [label="X[2146] <= 0.5\nentropy = 0.876\nsamples = 115\nvalue = [81, 34]"] ;
61 -> 62 ;
63 [label="X[241] <= 0.5\nentropy = 0.841\nsamples = 89\nvalue = [65, 24]"] ;
62 -> 63 ;
64 [label="X[2954] <= 0.5\nentropy = 0.827\nsamples = 73\nvalue = [54, 19]"] ;
63 -> 64 ;
65 [label="entropy = 0.789\nsamples = 55\nvalue = [42, 13]"] ;
64 -> 65 ;
66 [label="entropy = 0.918\nsamples = 18\nvalue = [12, 6]"] ;
64 -> 66 ;
67 [label="entropy = 0.896\nsamples = 16\nvalue = [11, 5]"] ;
63 -> 67 ;
68 [label="entropy = 0.961\nsamples = 26\nvalue = [16, 10]"] ;
62 -> 68 ;
69 [label="entropy = 0.711\nsamples = 36\nvalue = [29, 7]"] ;
61 -> 69 ;
70 [label="entropy = 0.999\nsamples = 23\nvalue = [12, 11]"] ;
60 -> 70 ;
71 [label="entropy = 0.602\nsamples = 34\nvalue = [29, 5]"] ;
59 -> 71 ;
72 [label="entropy = 0.337\nsamples = 16\nvalue = [15, 1]"] ;
58 -> 72 ;
73 [label="entropy = 0.0\nsamples = 17\nvalue = [17, 0]"] ;
57 -> 73 ;
74 [label="X[850] <= 0.5\nentropy = 0.224\nsamples = 83\nvalue = [80, 3]"] ;
2 -> 74 ;
75 [label="entropy = 0.0\nsamples = 61\nvalue = [61, 0]"] ;
74 -> 75 ;
76 [label="entropy = 0.575\nsamples = 22\nvalue = [19, 3]"] ;
74 -> 76 ;
77 [label="X[2974] <= 0.5\nentropy = 0.14\nsamples = 101\nvalue = [2, 99]"] ;
1 -> 77 ;
78 [label="X[4326] <= 0.5\nentropy = 0.092\nsamples = 85\nvalue = [1, 84]"] ;
77 -> 78 ;
79 [label="entropy = 0.0\nsamples = 67\nvalue = [0, 67]"] ;
78 -> 79 ;
80 [label="entropy = 0.31\nsamples = 18\nvalue = [1, 17]"] ;
78 -> 80 ;
81 [label="entropy = 0.337\nsamples = 16\nvalue = [1, 15]"] ;
77 -> 81 ;
82 [label="X[4269] <= 0.5\nentropy = 0.747\nsamples = 743\nvalue = [158, 585]"] ;
0 -> 82 [labeldistance=2.5, labelangle=-45, headlabel="False"] ;
83 [label="X[75] <= 0.5\nentropy = 0.672\nsamples = 658\nvalue = [116, 542]"] ;
82 -> 83 ;
84 [label="X[4406] <= 0.5\nentropy = 0.626\nsamples = 626\nvalue = [98, 528]"] ;
83 -> 84 ;
85 [label="entropy = 0.0\nsamples = 50\nvalue = [0, 50]"] ;
84 -> 85 ;
86 [label="X[3729] <= 0.5\nentropy = 0.658\nsamples = 576\nvalue = [98, 478]"] ;
84 -> 86 ;
87 [label="X[2243] <= 0.5\nentropy = 0.686\nsamples = 537\nvalue = [98, 439]"] ;
86 -> 87 ;
88 [label="X[241] <= 0.5\nentropy = 0.66\nsamples = 521\nvalue = [89, 432]"] ;
87 -> 88 ;
89 [label="X[2008] <= 0.5\nentropy = 0.62\nsamples = 487\nvalue = [75, 412]"] ;
88 -> 89 ;
90 [label="X[2920] <= 0.5\nentropy = 0.596\nsamples = 470\nvalue = [68, 402]"] ;
89 -> 90 ;
91 [label="X[4530] <= 0.5\nentropy = 0.611\nsamples = 452\nvalue = [68, 384]"] ;
90 -> 91 ;
92 [label="X[4326] <= 0.5\nentropy = 0.635\nsamples = 418\nvalue = [67, 351]"] ;
91 -> 92 ;
93 [label="X[2146] <= 0.5\nentropy = 0.581\nsamples = 339\nvalue = [47, 292]"] ;
92 -> 93 ;
94 [label="X[1695] <= 0.5\nentropy = 0.549\nsamples = 299\nvalue = [38, 261]"] ;
93 -> 94 ;
95 [label="X[2974] <= 0.5\nentropy = 0.519\nsamples = 275\nvalue = [32, 243]"] ;
94 -> 95 ;
96 [label="X[4735] <= 0.5\nentropy = 0.503\nsamples = 252\nvalue = [28, 224]"] ;
95 -> 96 ;
97 [label="X[2954] <= 0.5\nentropy = 0.49\nsamples = 225\nvalue = [24, 201]"] ;
96 -> 97 ;
98 [label="entropy = 0.475\nsamples = 206\nvalue = [21, 185]"] ;
97 -> 98 ;
99 [label="entropy = 0.629\nsamples = 19\nvalue = [3, 16]"] ;
97 -> 99 ;
100 [label="entropy = 0.605\nsamples = 27\nvalue = [4, 23]"] ;
96 -> 100 ;
101 [label="entropy = 0.667\nsamples = 23\nvalue = [4, 19]"] ;
95 -> 101 ;
102 [label="entropy = 0.811\nsamples = 24\nvalue = [6, 18]"] ;
94 -> 102 ;
103 [label="entropy = 0.769\nsamples = 40\nvalue = [9, 31]"] ;
93 -> 103 ;
104 [label="entropy = 0.816\nsamples = 79\nvalue = [20, 59]"] ;
92 -> 104 ;
105 [label="entropy = 0.191\nsamples = 34\nvalue = [1, 33]"] ;
91 -> 105 ;
106 [label="entropy = 0.0\nsamples = 18\nvalue = [0, 18]"] ;
90 -> 106 ;
107 [label="entropy = 0.977\nsamples = 17\nvalue = [7, 10]"] ;
89 -> 107 ;
108 [label="entropy = 0.977\nsamples = 34\nvalue = [14, 20]"] ;
88 -> 108 ;
109 [label="entropy = 0.989\nsamples = 16\nvalue = [9, 7]"] ;
87 -> 109 ;
110 [label="entropy = 0.0\nsamples = 39\nvalue = [0, 39]"] ;
86 -> 110 ;
111 [label="entropy = 0.989\nsamples = 32\nvalue = [18, 14]"] ;
83 -> 111 ;
112 [label="X[2954] <= 0.5\nentropy = 1.0\nsamples = 85\nvalue = [42, 43]"] ;
82 -> 112 ;
113 [label="X[4326] <= 0.5\nentropy = 0.998\nsamples = 68\nvalue = [32, 36]"] ;
112 -> 113 ;
114 [label="entropy = 0.98\nsamples = 48\nvalue = [20, 28]"] ;
113 -> 114 ;
115 [label="entropy = 0.971\nsamples = 20\nvalue = [12, 8]"] ;
113 -> 115 ;
116 [label="entropy = 0.977\nsamples = 17\nvalue = [10, 7]"] ;
112 -> 116 ;
}
